FANN_FLO_2.1
num_layers=4
learning_rate=0.700000
connection_rate=1.000000
network_type=0
learning_momentum=0.000000
training_algorithm=2
train_error_function=1
train_stop_function=0
cascade_output_change_fraction=0.010000
quickprop_decay=-0.000100
quickprop_mu=1.750000
rprop_increase_factor=1.200000
rprop_decrease_factor=0.500000
rprop_delta_min=0.000000
rprop_delta_max=50.000000
rprop_delta_zero=0.100000
cascade_output_stagnation_epochs=12
cascade_candidate_change_fraction=0.010000
cascade_candidate_stagnation_epochs=12
cascade_max_out_epochs=150
cascade_min_out_epochs=50
cascade_max_cand_epochs=150
cascade_min_cand_epochs=50
cascade_num_candidate_groups=2
bit_fail_limit=3.49999994039535522461e-01
cascade_candidate_limit=1.00000000000000000000e+03
cascade_weight_multiplier=4.00000005960464477539e-01
cascade_activation_functions_count=10
cascade_activation_functions=3 5 7 8 10 11 14 15 16 17 
cascade_activation_steepnesses_count=4
cascade_activation_steepnesses=2.50000000000000000000e-01 5.00000000000000000000e-01 7.50000000000000000000e-01 1.00000000000000000000e+00 
layer_sizes=6 10 6 5 
scale_included=0
neurons (num_inputs, activation_function, activation_steepness)=(0, 0, 0.00000000000000000000e+00) (0, 0, 0.00000000000000000000e+00) (0, 0, 0.00000000000000000000e+00) (0, 0, 0.00000000000000000000e+00) (0, 0, 0.00000000000000000000e+00) (0, 0, 0.00000000000000000000e+00) (6, 5, 5.00000000000000000000e-01) (6, 5, 5.00000000000000000000e-01) (6, 5, 5.00000000000000000000e-01) (6, 5, 5.00000000000000000000e-01) (6, 5, 5.00000000000000000000e-01) (6, 5, 5.00000000000000000000e-01) (6, 5, 5.00000000000000000000e-01) (6, 5, 5.00000000000000000000e-01) (6, 5, 5.00000000000000000000e-01) (0, 0, 0.00000000000000000000e+00) (10, 5, 5.00000000000000000000e-01) (10, 5, 5.00000000000000000000e-01) (10, 5, 5.00000000000000000000e-01) (10, 5, 5.00000000000000000000e-01) (10, 5, 5.00000000000000000000e-01) (0, 0, 0.00000000000000000000e+00) (6, 5, 5.00000000000000000000e-01) (6, 5, 5.00000000000000000000e-01) (6, 5, 5.00000000000000000000e-01) (6, 5, 5.00000000000000000000e-01) (0, 0, 0.00000000000000000000e+00) 
connections (connected_to_neuron, weight)=(0, 2.90571808815002441406e+00) (1, 2.78198981285095214844e+00) (2, 3.07123708724975585938e+00) (3, 2.87406182289123535156e+00) (4, 3.83597135543823242188e+00) (5, 2.84014678001403808594e+00) (0, 5.51147043704986572266e-01) (1, -1.45210168457031250000e+03) (2, -1.45257836914062500000e+03) (3, -1.90093827247619628906e+00) (4, 1.31932997703552246094e+00) (5, -1.48615905761718750000e+03) (0, -1.49680834960937500000e+03) (1, -1.48097583007812500000e+03) (2, -1.47666906738281250000e+03) (3, 1.47705895996093750000e+03) (4, -1.49830969238281250000e+03) (5, -1.47832360839843750000e+03) (0, -1.49750378417968750000e+03) (1, -1.49251367187500000000e+03) (2, -1.47671435546875000000e+03) (3, 1.18716040039062500000e+03) (4, -1.49788671875000000000e+03) (5, -1.47814001464843750000e+03) (0, -6.91002979874610900879e-02) (1, 4.48194891214370727539e-02) (2, 1.31832137703895568848e-01) (3, -2.23661631345748901367e-01) (4, -1.21440842747688293457e-01) (5, 9.96038019657135009766e-01) (0, 1.01631045341491699219e+00) (1, -1.43431079101562500000e+03) (2, -1.43450341796875000000e+03) (3, 1.06324195861816406250e+00) (4, 1.71164917945861816406e+00) (5, -1.49066247558593750000e+03) (0, 1.11158683896064758301e-01) (1, -3.48850011825561523438e-01) (2, -1.71008452773094177246e-01) (3, 1.04235917329788208008e-01) (4, 5.28316378593444824219e-01) (5, 1.14133393764495849609e+00) (0, -7.04562306404113769531e-01) (1, -4.55710649490356445313e-01) (2, 7.81352519989013671875e-01) (3, -3.89779210090637207031e-02) (4, -3.41166853904724121094e-01) (5, 3.86606939136981964111e-02) (0, 1.96677640080451965332e-01) (1, 3.96335422992706298828e-02) (2, -2.97035723924636840820e-01) (3, -3.44778709113597869873e-02) (4, -2.60038152337074279785e-02) (5, 2.59798586368560791016e-01) (6, 1.44986593723297119141e+00) (7, 1.10160732269287109375e+00) (8, 1.10570871829986572266e+00) (9, 1.54702162742614746094e+00) (10, -1.97926692962646484375e+01) (11, 4.70597892999649047852e-01) (12, 1.44723920822143554688e+01) (13, 6.65048480033874511719e-01) (14, 2.51577415466308593750e+01) (15, 1.41269469261169433594e+00) (6, 1.98869132995605468750e+00) (7, 8.15620660781860351563e-01) (8, 7.57311105728149414063e-01) (9, 7.70357668399810791016e-01) (10, -1.05266427993774414063e+00) (11, 1.01272416114807128906e+00) (12, 2.55789327621459960938e+00) (13, 1.03801357746124267578e+00) (14, -8.17679166793823242188e-01) (15, 2.47717428207397460938e+00) (6, 1.37580960988998413086e-01) (7, 3.02812027931213378906e+00) (8, 3.05179858207702636719e+00) (9, 2.91970276832580566406e+00) (10, -3.34560546875000000000e+01) (11, 6.77147436141967773438e+00) (12, -3.27898335456848144531e+00) (13, 2.49743413925170898438e+00) (14, 4.14479560852050781250e+01) (15, 3.87619525194168090820e-01) (6, 1.94127309322357177734e+00) (7, 1.72225117683410644531e+00) (8, 1.67444622516632080078e+00) (9, 1.65208399295806884766e+00) (10, 6.32162437438964843750e+01) (11, 8.27748537063598632813e-01) (12, -2.12342014312744140625e+01) (13, 1.04707872867584228516e+00) (14, -5.76896133422851562500e+01) (15, 7.75879859924316406250e-01) (6, -1.60101521015167236328e+00) (7, 4.85728788375854492188e+00) (8, 4.95050239562988281250e+00) (9, 4.92834949493408203125e+00) (10, 3.27815063476562500000e+02) (11, 4.77750635147094726563e+00) (12, 1.26630455017089843750e+02) (13, 4.74655723571777343750e+00) (14, -8.03418884277343750000e+01) (15, -1.11385250091552734375e+00) (16, 1.02831516414880752563e-02) (17, -8.31112265586853027344e-02) (18, 6.63135826587677001953e-01) (19, 1.44475391134619712830e-02) (20, -4.53479480743408203125e+00) (21, 5.20568466186523437500e+00) (16, -1.12098383903503417969e+00) (17, 1.13833208084106445313e+01) (18, -1.41534376144409179688e+00) (19, -1.78206038475036621094e+00) (20, -4.34795331954956054688e+00) (21, 1.81235361099243164063e+00) (16, -3.02500295639038085938e+00) (17, 5.43560934066772460938e+00) (18, 5.71339987218379974365e-02) (19, -2.85767126083374023438e+00) (20, -1.55955684185028076172e+00) (21, 1.39707124233245849609e+00) (16, -2.49920606613159179688e-01) (17, -5.02922773361206054688e+00) (18, 2.05446553230285644531e+00) (19, 2.29835584759712219238e-01) (20, 1.46025419235229492188e+00) (21, 1.19448876380920410156e+00) 
