FANN_FLO_2.1
num_layers=4
learning_rate=0.700000
connection_rate=1.000000
network_type=0
learning_momentum=0.000000
training_algorithm=2
train_error_function=1
train_stop_function=0
cascade_output_change_fraction=0.010000
quickprop_decay=-0.000100
quickprop_mu=1.750000
rprop_increase_factor=1.200000
rprop_decrease_factor=0.500000
rprop_delta_min=0.000000
rprop_delta_max=50.000000
rprop_delta_zero=0.100000
cascade_output_stagnation_epochs=12
cascade_candidate_change_fraction=0.010000
cascade_candidate_stagnation_epochs=12
cascade_max_out_epochs=150
cascade_min_out_epochs=50
cascade_max_cand_epochs=150
cascade_min_cand_epochs=50
cascade_num_candidate_groups=2
bit_fail_limit=3.49999994039535522461e-01
cascade_candidate_limit=1.00000000000000000000e+03
cascade_weight_multiplier=4.00000005960464477539e-01
cascade_activation_functions_count=10
cascade_activation_functions=3 5 7 8 10 11 14 15 16 17 
cascade_activation_steepnesses_count=4
cascade_activation_steepnesses=2.50000000000000000000e-01 5.00000000000000000000e-01 7.50000000000000000000e-01 1.00000000000000000000e+00 
layer_sizes=6 10 6 5 
scale_included=0
neurons (num_inputs, activation_function, activation_steepness)=(0, 0, 0.00000000000000000000e+00) (0, 0, 0.00000000000000000000e+00) (0, 0, 0.00000000000000000000e+00) (0, 0, 0.00000000000000000000e+00) (0, 0, 0.00000000000000000000e+00) (0, 0, 0.00000000000000000000e+00) (6, 5, 5.00000000000000000000e-01) (6, 5, 5.00000000000000000000e-01) (6, 5, 5.00000000000000000000e-01) (6, 5, 5.00000000000000000000e-01) (6, 5, 5.00000000000000000000e-01) (6, 5, 5.00000000000000000000e-01) (6, 5, 5.00000000000000000000e-01) (6, 5, 5.00000000000000000000e-01) (6, 5, 5.00000000000000000000e-01) (0, 0, 0.00000000000000000000e+00) (10, 5, 5.00000000000000000000e-01) (10, 5, 5.00000000000000000000e-01) (10, 5, 5.00000000000000000000e-01) (10, 5, 5.00000000000000000000e-01) (10, 5, 5.00000000000000000000e-01) (0, 0, 0.00000000000000000000e+00) (6, 5, 5.00000000000000000000e-01) (6, 5, 5.00000000000000000000e-01) (6, 5, 5.00000000000000000000e-01) (6, 5, 5.00000000000000000000e-01) (0, 0, 0.00000000000000000000e+00) 
connections (connected_to_neuron, weight)=(0, 9.07744407653808593750e-01) (1, -2.19827443361282348633e-01) (2, -2.99781250953674316406e+00) (3, 2.72990202903747558594e+00) (4, 1.03071308135986328125e+00) (5, -4.79351915419101715088e-02) (0, 1.22084367275238037109e+00) (1, 1.02904677391052246094e+00) (2, 9.53659236431121826172e-01) (3, 8.74462306499481201172e-01) (4, 1.00001144409179687500e+00) (5, 4.28772306442260742188e+00) (0, 1.42195963859558105469e+00) (1, 1.03685438632965087891e+00) (2, 8.13441693782806396484e-01) (3, 1.20041351318359375000e+01) (4, 3.06180334091186523438e+00) (5, 5.09207773208618164063e+00) (0, -2.04879343509674072266e-01) (1, 6.50601983070373535156e-02) (2, 3.08614522218704223633e-01) (3, 1.24685019254684448242e-01) (4, 6.79902806878089904785e-02) (5, -3.61505925655364990234e-01) (0, -1.78002845495939254761e-03) (1, -2.55233235657215118408e-02) (2, -1.50521218776702880859e-01) (3, -1.60363703966140747070e-01) (4, -1.37502878904342651367e-01) (5, 1.58791172504425048828e+00) (0, 9.97111678123474121094e-01) (1, 9.35012936592102050781e-01) (2, -3.96483778953552246094e+00) (3, 2.66549849510192871094e+00) (4, 1.37446093559265136719e+00) (5, -3.33441758155822753906e+00) (0, -1.26680776476860046387e-01) (1, 2.96364068984985351563e-01) (2, 1.06302663683891296387e-01) (3, 1.60394757986068725586e-01) (4, 1.70966953039169311523e-01) (5, -1.14869511127471923828e+00) (0, 1.04236197471618652344e+00) (1, 5.86522758007049560547e-01) (2, -5.10908412933349609375e+00) (3, 4.31325769424438476563e+00) (4, 1.56126737594604492188e+00) (5, 3.59731823205947875977e-01) (0, 1.28275644779205322266e+00) (1, 9.18941140174865722656e-01) (2, 7.31618344783782958984e-01) (3, 8.19975674152374267578e-01) (4, 9.18431043624877929688e-01) (5, 4.50229072570800781250e+00) (6, 7.62252688407897949219e-01) (7, 8.73910784721374511719e-01) (8, 1.40142703056335449219e+00) (9, -3.19583835601806640625e+01) (10, -7.43217134475708007813e+00) (11, -2.95827198028564453125e+00) (12, 5.24649322032928466797e-01) (13, 4.54040527343750000000e-01) (14, 9.34852838516235351563e-01) (15, 7.12026238441467285156e-01) (6, 5.17024472355842590332e-02) (7, -3.40231433510780334473e-02) (8, -4.05615717172622680664e-01) (9, -1.81188812255859375000e+01) (10, 7.53787517547607421875e+00) (11, -2.20704719424247741699e-01) (12, 1.12437796592712402344e+00) (13, -1.64562650024890899658e-02) (14, 2.99215149134397506714e-02) (15, 4.30488251149654388428e-02) (6, 8.90919491648674011230e-02) (7, 3.95579367876052856445e-01) (8, -8.50151836872100830078e-01) (9, -2.10300183296203613281e+00) (10, -4.50802266597747802734e-01) (11, -2.77497172355651855469e-01) (12, 3.25846290588378906250e+00) (13, -5.10760024189949035645e-02) (14, 5.06856776773929595947e-02) (15, -1.62546828389167785645e-01) (6, 1.87454628944396972656e+00) (7, 7.67729461193084716797e-01) (8, 1.15058600902557373047e+00) (9, -5.20047035217285156250e+01) (10, -6.02313079833984375000e+01) (11, 2.05952882766723632813e+00) (12, 5.83163690567016601563e+00) (13, 1.78206741809844970703e+00) (14, 7.95846462249755859375e-01) (15, 1.58228218555450439453e+00) (6, 4.40613806247711181641e-01) (7, -4.77693051099777221680e-01) (8, 9.06800702214241027832e-02) (9, 7.02751159667968750000e+01) (10, 8.09824523925781250000e+01) (11, 3.86839896440505981445e-01) (12, -2.66536697745323181152e-03) (13, 3.94926309585571289063e-01) (14, -5.78527927398681640625e-01) (15, 3.64987760782241821289e-01) (16, 1.37411606311798095703e+00) (17, -1.21584081649780273438e+00) (18, 3.53524088859558105469e+00) (19, 3.89687013626098632813e+00) (20, 1.25758695602416992188e+00) (21, 4.24221658706665039063e+00) (16, -1.44814026355743408203e+00) (17, 1.51131081581115722656e+00) (18, 4.54769104719161987305e-01) (19, 1.92156839370727539063e+00) (20, 2.21721434593200683594e+00) (21, -1.49566665291786193848e-01) (16, -1.59164679050445556641e+00) (17, -1.73090025782585144043e-01) (18, -6.93929290771484375000e+00) (19, 2.52725434303283691406e+00) (20, -4.61115539073944091797e-01) (21, 1.14173054695129394531e+00) (16, 3.59119325876235961914e-02) (17, -1.90313860774040222168e-01) (18, 1.38160169124603271484e+00) (19, -6.06069982051849365234e-01) (20, -1.77416062355041503906e+00) (21, 2.00283479690551757813e+00) 
