FANN_FLO_2.1
num_layers=4
learning_rate=0.700000
connection_rate=1.000000
network_type=0
learning_momentum=0.000000
training_algorithm=2
train_error_function=1
train_stop_function=0
cascade_output_change_fraction=0.010000
quickprop_decay=-0.000100
quickprop_mu=1.750000
rprop_increase_factor=1.200000
rprop_decrease_factor=0.500000
rprop_delta_min=0.000000
rprop_delta_max=50.000000
rprop_delta_zero=0.100000
cascade_output_stagnation_epochs=12
cascade_candidate_change_fraction=0.010000
cascade_candidate_stagnation_epochs=12
cascade_max_out_epochs=150
cascade_min_out_epochs=50
cascade_max_cand_epochs=150
cascade_min_cand_epochs=50
cascade_num_candidate_groups=2
bit_fail_limit=3.49999994039535522461e-01
cascade_candidate_limit=1.00000000000000000000e+03
cascade_weight_multiplier=4.00000005960464477539e-01
cascade_activation_functions_count=10
cascade_activation_functions=3 5 7 8 10 11 14 15 16 17 
cascade_activation_steepnesses_count=4
cascade_activation_steepnesses=2.50000000000000000000e-01 5.00000000000000000000e-01 7.50000000000000000000e-01 1.00000000000000000000e+00 
layer_sizes=6 10 6 5 
scale_included=0
neurons (num_inputs, activation_function, activation_steepness)=(0, 0, 0.00000000000000000000e+00) (0, 0, 0.00000000000000000000e+00) (0, 0, 0.00000000000000000000e+00) (0, 0, 0.00000000000000000000e+00) (0, 0, 0.00000000000000000000e+00) (0, 0, 0.00000000000000000000e+00) (6, 5, 5.00000000000000000000e-01) (6, 5, 5.00000000000000000000e-01) (6, 5, 5.00000000000000000000e-01) (6, 5, 5.00000000000000000000e-01) (6, 5, 5.00000000000000000000e-01) (6, 5, 5.00000000000000000000e-01) (6, 5, 5.00000000000000000000e-01) (6, 5, 5.00000000000000000000e-01) (6, 5, 5.00000000000000000000e-01) (0, 0, 0.00000000000000000000e+00) (10, 5, 5.00000000000000000000e-01) (10, 5, 5.00000000000000000000e-01) (10, 5, 5.00000000000000000000e-01) (10, 5, 5.00000000000000000000e-01) (10, 5, 5.00000000000000000000e-01) (0, 0, 0.00000000000000000000e+00) (6, 5, 5.00000000000000000000e-01) (6, 5, 5.00000000000000000000e-01) (6, 5, 5.00000000000000000000e-01) (6, 5, 5.00000000000000000000e-01) (0, 0, 0.00000000000000000000e+00) 
connections (connected_to_neuron, weight)=(0, -8.93243625760078430176e-02) (1, 4.15109284222126007080e-02) (2, -8.52183699607849121094e-02) (3, -6.88528493046760559082e-02) (4, -2.14788112789392471313e-02) (5, 1.38129675388336181641e+00) (0, -1.85727059841156005859e-01) (1, -1.55155077576637268066e-01) (2, 5.66153049468994140625e-01) (3, 7.33863472938537597656e-01) (4, -1.86028659343719482422e-01) (5, -2.43988442420959472656e+00) (0, -2.92604017257690429688e+00) (1, -1.31562461853027343750e+01) (2, -2.55766925811767578125e+01) (3, -3.75583720207214355469e+00) (4, -5.46929502487182617188e+00) (5, -7.84976005554199218750e+00) (0, 3.46408635377883911133e-01) (1, 7.09753990173339843750e-01) (2, 1.00111818313598632812e+00) (3, 9.80764091014862060547e-01) (4, 9.12416875362396240234e-01) (5, -4.24957215785980224609e-01) (0, 7.07862004637718200684e-02) (1, 4.02764454483985900879e-02) (2, 5.67969791591167449951e-02) (3, 2.32051499187946319580e-02) (4, 1.66022568941116333008e-01) (5, -3.29238384962081909180e-01) (0, 1.24387815594673156738e-01) (1, 1.93900898098945617676e-01) (2, 1.58402360975742340088e-02) (3, 8.25425535440444946289e-02) (4, 1.36037454009056091309e-01) (5, -2.94149088859558105469e+00) (0, 1.26109337806701660156e+00) (1, 9.31896269321441650391e-02) (2, 2.35131420195102691650e-02) (3, 2.48946234583854675293e-01) (4, 2.33533322811126708984e-01) (5, 8.47024083137512207031e-01) (0, 6.64220988750457763672e-01) (1, 7.20623657107353210449e-02) (2, -1.99345922470092773438e+00) (3, -4.14473205804824829102e-01) (4, 1.57844692468643188477e-01) (5, 4.35207748413085937500e+00) (0, 7.08750262856483459473e-02) (1, 1.48458972573280334473e-01) (2, 1.47923186421394348145e-01) (3, -3.45324948430061340332e-02) (4, 6.48439005017280578613e-02) (5, -1.30280554294586181641e+00) (6, -3.38444185256958007812e+00) (7, -1.68621227145195007324e-01) (8, 1.16336815059185028076e-01) (9, 3.63730877637863159180e-01) (10, 2.87901431322097778320e-01) (11, 5.75066280364990234375e+00) (12, 4.79518212378025054932e-02) (13, 1.70519840717315673828e+00) (14, 1.72237801551818847656e+00) (15, 8.72000932693481445312e-01) (6, -4.62539382278919219971e-02) (7, 2.31501430273056030273e-01) (8, -8.11002478003501892090e-02) (9, 1.59526199102401733398e-01) (10, 9.49718579649925231934e-02) (11, 5.90715229511260986328e-01) (12, -2.09014073014259338379e-01) (13, -1.00103586912155151367e-01) (14, 1.05746471881866455078e+00) (15, 6.21086239814758300781e-01) (6, -1.47899210453033447266e-01) (7, 9.90059852600097656250e+00) (8, 1.55031216144561767578e+00) (9, -3.27726393938064575195e-01) (10, 8.23206603527069091797e-02) (11, -2.63904571533203125000e+00) (12, -2.08745613694190979004e-01) (13, 1.77762079238891601562e+00) (14, -4.31212186813354492188e+00) (15, -3.22685182094573974609e-01) (6, -4.35661010742187500000e+01) (7, 8.65635108947753906250e+00) (8, 5.77861309051513671875e-01) (9, 1.50486603379249572754e-01) (10, 7.61418521404266357422e-01) (11, 3.76887359619140625000e+01) (12, 2.61200070381164550781e-01) (13, 1.55305624008178710938e+01) (14, 1.67962491512298583984e+00) (15, -1.72864571213722229004e-02) (6, 2.13376259803771972656e+00) (7, 7.66434717178344726562e+00) (8, -1.25663906335830688477e-01) (9, 1.89590549468994140625e+00) (10, -5.11594951152801513672e-01) (11, -4.62391471862792968750e+01) (12, 6.45133197307586669922e-01) (13, -4.73968237638473510742e-02) (14, -1.94723832607269287109e+00) (15, 1.06346726417541503906e+00) (16, 1.58889186382293701172e+00) (17, 3.89879941940307617188e+00) (18, 3.07601094245910644531e-01) (19, 6.70505583286285400391e-01) (20, 8.69500815868377685547e-01) (21, 1.71048617362976074219e+00) (16, 1.88457095623016357422e+00) (17, 2.45726317167282104492e-01) (18, 8.18215608596801757812e-01) (19, 1.77014559507369995117e-01) (20, 2.11873745918273925781e+00) (21, 4.62148278951644897461e-01) (16, 1.10233330726623535156e+00) (17, 7.12086141109466552734e-01) (18, 8.59892904758453369141e-01) (19, -1.11867105960845947266e+00) (20, 1.19190730154514312744e-01) (21, 6.25366985797882080078e-01) (16, -4.35441672801971435547e-01) (17, 1.27976822853088378906e+00) (18, -2.63454467058181762695e-01) (19, -1.62147596478462219238e-01) (20, -1.42082381248474121094e+00) (21, 8.02106022834777832031e-01) 
