FANN_FLO_2.1
num_layers=4
learning_rate=0.700000
connection_rate=1.000000
network_type=0
learning_momentum=0.000000
training_algorithm=2
train_error_function=1
train_stop_function=0
cascade_output_change_fraction=0.010000
quickprop_decay=-0.000100
quickprop_mu=1.750000
rprop_increase_factor=1.200000
rprop_decrease_factor=0.500000
rprop_delta_min=0.000000
rprop_delta_max=50.000000
rprop_delta_zero=0.100000
cascade_output_stagnation_epochs=12
cascade_candidate_change_fraction=0.010000
cascade_candidate_stagnation_epochs=12
cascade_max_out_epochs=150
cascade_min_out_epochs=50
cascade_max_cand_epochs=150
cascade_min_cand_epochs=50
cascade_num_candidate_groups=2
bit_fail_limit=3.49999994039535522461e-01
cascade_candidate_limit=1.00000000000000000000e+03
cascade_weight_multiplier=4.00000005960464477539e-01
cascade_activation_functions_count=10
cascade_activation_functions=3 5 7 8 10 11 14 15 16 17 
cascade_activation_steepnesses_count=4
cascade_activation_steepnesses=2.50000000000000000000e-01 5.00000000000000000000e-01 7.50000000000000000000e-01 1.00000000000000000000e+00 
layer_sizes=6 10 6 5 
scale_included=0
neurons (num_inputs, activation_function, activation_steepness)=(0, 0, 0.00000000000000000000e+00) (0, 0, 0.00000000000000000000e+00) (0, 0, 0.00000000000000000000e+00) (0, 0, 0.00000000000000000000e+00) (0, 0, 0.00000000000000000000e+00) (0, 0, 0.00000000000000000000e+00) (6, 5, 5.00000000000000000000e-01) (6, 5, 5.00000000000000000000e-01) (6, 5, 5.00000000000000000000e-01) (6, 5, 5.00000000000000000000e-01) (6, 5, 5.00000000000000000000e-01) (6, 5, 5.00000000000000000000e-01) (6, 5, 5.00000000000000000000e-01) (6, 5, 5.00000000000000000000e-01) (6, 5, 5.00000000000000000000e-01) (0, 0, 0.00000000000000000000e+00) (10, 5, 5.00000000000000000000e-01) (10, 5, 5.00000000000000000000e-01) (10, 5, 5.00000000000000000000e-01) (10, 5, 5.00000000000000000000e-01) (10, 5, 5.00000000000000000000e-01) (0, 0, 0.00000000000000000000e+00) (6, 5, 5.00000000000000000000e-01) (6, 5, 5.00000000000000000000e-01) (6, 5, 5.00000000000000000000e-01) (6, 5, 5.00000000000000000000e-01) (0, 0, 0.00000000000000000000e+00) 
connections (connected_to_neuron, weight)=(0, -1.01428993046283721924e-01) (1, -1.67118877172470092773e-01) (2, 4.44093197584152221680e-01) (3, -1.92942041903734207153e-02) (4, 5.01952350139617919922e-01) (5, -2.38302096724510192871e-01) (0, 8.52153152227401733398e-02) (1, 4.77458834648132324219e-01) (2, 6.13648176193237304688e-01) (3, 8.87312442064285278320e-02) (4, -1.23847596347332000732e-01) (5, -1.62001937627792358398e-01) (0, -2.11355257779359817505e-02) (1, 1.64040043950080871582e-01) (2, 4.85581547021865844727e-01) (3, 6.56988322734832763672e-01) (4, 3.31830650568008422852e-01) (5, -9.70005273818969726563e-01) (0, -3.04342091083526611328e-01) (1, 1.01237401366233825684e-01) (2, 1.14097595214843750000e-01) (3, -1.74429014325141906738e-01) (4, -8.67122504860162734985e-03) (5, 2.05389857292175292969e+00) (0, 6.41673386096954345703e-01) (1, 2.38178402185440063477e-01) (2, -3.08423817157745361328e-01) (3, -7.65315517783164978027e-02) (4, 7.44712293148040771484e-01) (5, -2.68345808982849121094e+00) (0, 1.85079291462898254395e-01) (1, -2.12133765220642089844e-01) (2, -4.77169871330261230469e-01) (3, 1.52195751667022705078e-01) (4, 4.90830928087234497070e-01) (5, 1.60215759277343750000e+00) (0, -9.81806293129920959473e-02) (1, -8.76877754926681518555e-02) (2, -1.48800387978553771973e-01) (3, 9.84362885355949401855e-02) (4, 4.72550660371780395508e-01) (5, 1.10698747634887695313e+00) (0, 1.45057976245880126953e+00) (1, 9.20478761196136474609e-01) (2, -3.17982029914855957031e+00) (3, -1.63546597957611083984e+00) (4, 8.54002892971038818359e-01) (5, -1.42797696590423583984e+00) (0, 3.44920933246612548828e-01) (1, 3.55764299631118774414e-01) (2, 8.11975672841072082520e-02) (3, 1.08858577907085418701e-01) (4, 6.35554611682891845703e-01) (5, -2.51855659484863281250e+00) (6, -3.15398979187011718750e+00) (7, 8.75524044036865234375e-01) (8, 3.23142737150192260742e-01) (9, 1.91410481929779052734e+00) (10, -6.27007007598876953125e-01) (11, 9.28185999393463134766e-01) (12, 4.13341969251632690430e-01) (13, 1.54903185367584228516e+00) (14, 3.10914158821105957031e-01) (15, 7.38316059112548828125e-01) (6, -1.47731618881225585938e+01) (7, 3.28687858581542968750e+00) (8, 4.15012866258621215820e-01) (9, -3.31745696067810058594e+00) (10, -2.44655585289001464844e+00) (11, -4.99286937713623046875e+00) (12, 1.02750279009342193604e-01) (13, 1.95364236831665039063e+00) (14, -2.33201885223388671875e+00) (15, 8.07803511619567871094e-01) (6, 5.32458257675170898438e+00) (7, -4.97795820236206054688e+00) (8, 9.11138892173767089844e-01) (9, 9.66747951507568359375e+00) (10, 2.28122249245643615723e-01) (11, 4.79137563705444335938e+00) (12, 3.05358767509460449219e+00) (13, 5.82683229446411132813e+00) (14, 1.39544260501861572266e+00) (15, 5.47069907188415527344e-01) (6, 2.19901394844055175781e+00) (7, -5.58202147483825683594e-01) (8, 3.79688888788223266602e-01) (9, 2.57114863395690917969e+00) (10, 7.38185405731201171875e-01) (11, 3.11132860183715820313e+00) (12, 1.78464126586914062500e+00) (13, 5.87599933147430419922e-01) (14, 5.37771642208099365234e-01) (15, 2.33814150094985961914e-01) (6, -4.29152946472167968750e+01) (7, -8.54446697235107421875e+00) (8, 2.01303339004516601563e+00) (9, -1.43121124267578125000e+02) (10, 1.36613154411315917969e+00) (11, 1.16760734558105468750e+02) (12, -2.88499891757965087891e-01) (13, -2.06530070304870605469e+00) (14, -5.53765714168548583984e-01) (15, 6.51338768005371093750e+00) (16, -1.06126099824905395508e-01) (17, 7.52280116081237792969e-01) (18, -2.00923132896423339844e+00) (19, -4.66414070129394531250e+00) (20, 1.39926552772521972656e+00) (21, 4.16764736175537109375e+00) (16, -6.20762252807617187500e+00) (17, -2.65269541740417480469e+00) (18, -3.19330501556396484375e+00) (19, 7.83136606216430664063e+00) (20, 4.24046087265014648438e+00) (21, 3.47740828990936279297e-01) (16, 2.61519908905029296875e+00) (17, -4.97660112380981445313e+00) (18, -1.85660831630229949951e-02) (19, -6.04748249053955078125e-01) (20, 2.66300582885742187500e+00) (21, -2.98237688839435577393e-02) (16, 1.09908838272094726563e+01) (17, -4.09471178054809570313e+00) (18, 2.61457395553588867188e+00) (19, -1.05650320053100585938e+01) (20, -2.67067015171051025391e-01) (21, 3.01874518394470214844e-01) 
