FANN_FLO_2.1
num_layers=4
learning_rate=0.700000
connection_rate=1.000000
network_type=0
learning_momentum=0.000000
training_algorithm=2
train_error_function=1
train_stop_function=0
cascade_output_change_fraction=0.010000
quickprop_decay=-0.000100
quickprop_mu=1.750000
rprop_increase_factor=1.200000
rprop_decrease_factor=0.500000
rprop_delta_min=0.000000
rprop_delta_max=50.000000
rprop_delta_zero=0.100000
cascade_output_stagnation_epochs=12
cascade_candidate_change_fraction=0.010000
cascade_candidate_stagnation_epochs=12
cascade_max_out_epochs=150
cascade_min_out_epochs=50
cascade_max_cand_epochs=150
cascade_min_cand_epochs=50
cascade_num_candidate_groups=2
bit_fail_limit=3.49999994039535522461e-01
cascade_candidate_limit=1.00000000000000000000e+03
cascade_weight_multiplier=4.00000005960464477539e-01
cascade_activation_functions_count=10
cascade_activation_functions=3 5 7 8 10 11 14 15 16 17 
cascade_activation_steepnesses_count=4
cascade_activation_steepnesses=2.50000000000000000000e-01 5.00000000000000000000e-01 7.50000000000000000000e-01 1.00000000000000000000e+00 
layer_sizes=6 10 6 5 
scale_included=0
neurons (num_inputs, activation_function, activation_steepness)=(0, 0, 0.00000000000000000000e+00) (0, 0, 0.00000000000000000000e+00) (0, 0, 0.00000000000000000000e+00) (0, 0, 0.00000000000000000000e+00) (0, 0, 0.00000000000000000000e+00) (0, 0, 0.00000000000000000000e+00) (6, 5, 5.00000000000000000000e-01) (6, 5, 5.00000000000000000000e-01) (6, 5, 5.00000000000000000000e-01) (6, 5, 5.00000000000000000000e-01) (6, 5, 5.00000000000000000000e-01) (6, 5, 5.00000000000000000000e-01) (6, 5, 5.00000000000000000000e-01) (6, 5, 5.00000000000000000000e-01) (6, 5, 5.00000000000000000000e-01) (0, 0, 0.00000000000000000000e+00) (10, 5, 5.00000000000000000000e-01) (10, 5, 5.00000000000000000000e-01) (10, 5, 5.00000000000000000000e-01) (10, 5, 5.00000000000000000000e-01) (10, 5, 5.00000000000000000000e-01) (0, 0, 0.00000000000000000000e+00) (6, 5, 5.00000000000000000000e-01) (6, 5, 5.00000000000000000000e-01) (6, 5, 5.00000000000000000000e-01) (6, 5, 5.00000000000000000000e-01) (0, 0, 0.00000000000000000000e+00) 
connections (connected_to_neuron, weight)=(0, -1.13058529794216156006e-01) (1, 2.15856805443763732910e-01) (2, 1.35790422558784484863e-01) (3, 2.02425479888916015625e-01) (4, 2.05423578619956970215e-01) (5, -1.76279708743095397949e-01) (0, 3.48319947719573974609e-01) (1, 1.45648312568664550781e+00) (2, -6.87364339828491210938e-01) (3, -1.39628902077674865723e-01) (4, -1.34163808822631835938e+00) (5, -4.21316671371459960938e+00) (0, 1.43720092773437500000e+03) (1, 1.49398254394531250000e+03) (2, 1.49748352050781250000e+03) (3, 7.47952453613281250000e+02) (4, 1.42858056640625000000e+03) (5, 1.49987207031250000000e+03) (0, 9.26229283213615417480e-02) (1, -2.33346056193113327026e-02) (2, -1.20075407903641462326e-03) (3, 2.10916504263877868652e-01) (4, 5.12261331081390380859e-01) (5, -4.54956650733947753906e-01) (0, 1.26733117675781250000e+03) (1, 1.37928173828125000000e+03) (2, 1.47718188476562500000e+03) (3, 9.30981628417968750000e+02) (4, 1.26546972656250000000e+03) (5, 1.49983349609375000000e+03) (0, 7.18292236328125000000e-01) (1, 6.14930033683776855469e-01) (2, 4.69450950622558593750e-01) (3, 6.72055244445800781250e-01) (4, 1.30681526660919189453e+00) (5, 8.39246571063995361328e-01) (0, -2.11947903037071228027e-01) (1, -3.54031957685947418213e-02) (2, 2.68166542053222656250e-01) (3, 6.51328712701797485352e-02) (4, 1.17850089073181152344e+00) (5, 1.00819671154022216797e+00) (0, 2.53043211996555328369e-02) (1, 2.72677838802337646484e-01) (2, 9.72094535827636718750e-02) (3, 2.07157917320728302002e-02) (4, -2.32995986938476562500e-01) (5, -2.02257251739501953125e+00) (0, 6.94177687168121337891e-01) (1, 6.25948727130889892578e-01) (2, 5.46000003814697265625e-01) (3, 6.77783310413360595703e-01) (4, 1.26932919025421142578e+00) (5, 9.75634515285491943359e-01) (6, 4.84076857566833496094e-01) (7, 1.03073406219482421875e+00) (8, 1.17311000823974609375e+00) (9, 7.49402463436126708984e-01) (10, 1.45059478282928466797e+00) (11, 1.89797770977020263672e+00) (12, 2.18470096588134765625e+01) (13, -3.18311233520507812500e+01) (14, 1.93450295925140380859e+00) (15, 1.83153951168060302734e+00) (6, -3.21648150682449340820e-01) (7, -9.22277197241783142090e-02) (8, -2.52069383859634399414e-01) (9, -2.79899692535400390625e+00) (10, 2.75978177785873413086e-01) (11, 5.06600558757781982422e-01) (12, 7.07122981548309326172e-02) (13, 3.15546751022338867188e+00) (14, 5.83878219127655029297e-01) (15, 5.74491858482360839844e-01) (6, 6.37001276016235351563e-01) (7, -7.11879253387451171875e-01) (8, -6.63932859897613525391e-01) (9, 1.05717360973358154297e+00) (10, -6.44681453704833984375e-01) (11, -2.49701589345932006836e-01) (12, -8.24532699584960937500e+00) (13, 8.19702529907226562500e+00) (14, -3.09914767742156982422e-01) (15, -2.63545125722885131836e-01) (6, 5.28371572494506835938e-01) (7, -7.21654295921325683594e-01) (8, -5.55926680564880371094e-01) (9, 1.12080657482147216797e+00) (10, -8.43127630650997161865e-03) (11, 2.11849585175514221191e-01) (12, -2.23200869560241699219e+00) (13, 1.69116055965423583984e+00) (14, 2.59733438491821289063e-01) (15, 2.01658457517623901367e-01) (6, 1.46048247814178466797e+00) (7, 1.67371523380279541016e+00) (8, 1.73238623142242431641e+00) (9, 5.26372432708740234375e-01) (10, 5.73926687240600585938e-01) (11, 4.89058673381805419922e-01) (12, 1.39988002777099609375e+01) (13, -2.32440586090087890625e+01) (14, 4.96434718370437622070e-01) (15, 5.05232810974121093750e-01) (16, 3.21422266960144042969e+00) (17, 3.97320008277893066406e+00) (18, 3.14520430564880371094e+00) (19, 6.83859062194824218750e+00) (20, 4.68151479959487915039e-01) (21, 2.70376801490783691406e+00) (16, 4.49947237968444824219e-01) (17, 2.34278425574302673340e-01) (18, 4.03129196166992187500e+00) (19, 3.73813176155090332031e+00) (20, 5.41886997222900390625e+00) (21, -1.15130826830863952637e-01) (16, -2.61087942123413085938e+00) (17, -9.84247565269470214844e-01) (18, -3.52796053886413574219e+00) (19, 7.04049682617187500000e+00) (20, 2.79847645759582519531e+00) (21, -5.35607218742370605469e-01) (16, -4.16979217529296875000e+00) (17, 2.59593367576599121094e+00) (18, -7.31111541390419006348e-02) (19, -1.51811528205871582031e+00) (20, 1.57909429073333740234e+00) (21, 1.90103328227996826172e+00) 
