FANN_FLO_2.1
num_layers=4
learning_rate=0.700000
connection_rate=1.000000
network_type=0
learning_momentum=0.000000
training_algorithm=2
train_error_function=1
train_stop_function=0
cascade_output_change_fraction=0.010000
quickprop_decay=-0.000100
quickprop_mu=1.750000
rprop_increase_factor=1.200000
rprop_decrease_factor=0.500000
rprop_delta_min=0.000000
rprop_delta_max=50.000000
rprop_delta_zero=0.100000
cascade_output_stagnation_epochs=12
cascade_candidate_change_fraction=0.010000
cascade_candidate_stagnation_epochs=12
cascade_max_out_epochs=150
cascade_min_out_epochs=50
cascade_max_cand_epochs=150
cascade_min_cand_epochs=50
cascade_num_candidate_groups=2
bit_fail_limit=3.49999994039535522461e-01
cascade_candidate_limit=1.00000000000000000000e+03
cascade_weight_multiplier=4.00000005960464477539e-01
cascade_activation_functions_count=10
cascade_activation_functions=3 5 7 8 10 11 14 15 16 17 
cascade_activation_steepnesses_count=4
cascade_activation_steepnesses=2.50000000000000000000e-01 5.00000000000000000000e-01 7.50000000000000000000e-01 1.00000000000000000000e+00 
layer_sizes=6 10 6 5 
scale_included=0
neurons (num_inputs, activation_function, activation_steepness)=(0, 0, 0.00000000000000000000e+00) (0, 0, 0.00000000000000000000e+00) (0, 0, 0.00000000000000000000e+00) (0, 0, 0.00000000000000000000e+00) (0, 0, 0.00000000000000000000e+00) (0, 0, 0.00000000000000000000e+00) (6, 5, 5.00000000000000000000e-01) (6, 5, 5.00000000000000000000e-01) (6, 5, 5.00000000000000000000e-01) (6, 5, 5.00000000000000000000e-01) (6, 5, 5.00000000000000000000e-01) (6, 5, 5.00000000000000000000e-01) (6, 5, 5.00000000000000000000e-01) (6, 5, 5.00000000000000000000e-01) (6, 5, 5.00000000000000000000e-01) (0, 0, 0.00000000000000000000e+00) (10, 5, 5.00000000000000000000e-01) (10, 5, 5.00000000000000000000e-01) (10, 5, 5.00000000000000000000e-01) (10, 5, 5.00000000000000000000e-01) (10, 5, 5.00000000000000000000e-01) (0, 0, 0.00000000000000000000e+00) (6, 5, 5.00000000000000000000e-01) (6, 5, 5.00000000000000000000e-01) (6, 5, 5.00000000000000000000e-01) (6, 5, 5.00000000000000000000e-01) (0, 0, 0.00000000000000000000e+00) 
connections (connected_to_neuron, weight)=(0, 1.63767710328102111816e-01) (1, -3.57541859149932861328e-01) (2, -2.18946397304534912109e-01) (3, 1.01451069116592407227e-01) (4, 5.07480800151824951172e-01) (5, 1.53456366062164306641e+00) (0, 8.20104479789733886719e-01) (1, 1.48910844326019287109e+00) (2, 1.06429672241210937500e+00) (3, 1.03329503536224365234e+00) (4, 1.18512797355651855469e+00) (5, -4.64811623096466064453e-01) (0, 4.56588596105575561523e-01) (1, 2.76005893945693969727e-01) (2, 6.97907304763793945313e+00) (3, 1.58180201053619384766e+00) (4, 1.50000000000000000000e+03) (5, -2.34827414155006408691e-01) (0, 8.35987567901611328125e-01) (1, 1.34958779811859130859e+00) (2, 1.24016368389129638672e+00) (3, 9.98832285404205322266e-01) (4, 1.02790403366088867188e+00) (5, -3.99308264255523681641e-01) (0, -1.45424395799636840820e-01) (1, 2.98033617436885833740e-02) (2, -2.35976204276084899902e-01) (3, -1.08180023729801177979e-01) (4, -2.82242558896541595459e-02) (5, 2.75309967994689941406e+00) (0, -5.86232900619506835938e-01) (1, -1.00621283054351806641e-01) (2, 7.37183630466461181641e-01) (3, 5.93437969684600830078e-01) (4, -8.68858024477958679199e-02) (5, 2.09519147872924804688e+00) (0, 2.15562656521797180176e-01) (1, 1.77963003516197204590e-01) (2, 3.88415530323982238770e-02) (3, -1.76729738712310791016e-01) (4, 1.27619400620460510254e-01) (5, 2.24275797605514526367e-01) (0, 3.80020141601562500000e-01) (1, -6.37587830424308776855e-02) (2, -3.74187946319580078125e-01) (3, 2.90839318186044692993e-02) (4, 2.77483820915222167969e-01) (5, 8.74897181987762451172e-01) (0, 9.83641326427459716797e-01) (1, 1.33380019664764404297e+00) (2, 9.20480728149414062500e-01) (3, 1.07669198513031005859e+00) (4, -2.77846771240234375000e+02) (5, -4.94180284440517425537e-02) (6, -1.32103109359741210938e+00) (7, 4.60765004158020019531e-01) (8, 4.23248052597045898438e+00) (9, 4.21846926212310791016e-01) (10, -1.88894538879394531250e+01) (11, -4.91569471359252929688e+00) (12, -1.02761001586914062500e+01) (13, 1.18211545944213867188e+01) (14, 4.06112611293792724609e-01) (15, 1.95287182927131652832e-01) (6, 2.32900829315185546875e+01) (7, 4.06336784362792968750e-01) (8, 6.53506278991699218750e-01) (9, 3.47168743610382080078e-01) (10, -1.21848602294921875000e+01) (11, -1.70761013031005859375e+00) (12, -4.01529045104980468750e+01) (13, 4.30903930664062500000e+01) (14, 3.67925643920898437500e-01) (15, 6.66324973106384277344e-01) (6, 3.11688976287841796875e+01) (7, 2.48901754617691040039e-01) (8, -4.07347202301025390625e-01) (9, 3.01062434911727905273e-01) (10, -1.17763671875000000000e+01) (11, -6.42498075962066650391e-01) (12, 1.73100662231445312500e+00) (13, 4.43014502525329589844e-01) (14, 3.75921517610549926758e-01) (15, -2.11080163717269897461e-02) (6, -1.43996310234069824219e+00) (7, 4.59648162126541137695e-01) (8, -1.80335664749145507813e+00) (9, 3.61027508974075317383e-01) (10, 1.02194519042968750000e+01) (11, 4.35227060317993164063e+00) (12, 1.07025757431983947754e-01) (13, 8.83418619632720947266e-02) (14, 3.61508518457412719727e-01) (15, 1.03059455752372741699e-01) (6, -5.85709428787231445313e+00) (7, 2.50823706388473510742e-01) (8, 6.01841807365417480469e-01) (9, 2.72108823060989379883e-01) (10, -4.76914739608764648438e+00) (11, -2.35839557647705078125e+00) (12, 8.35974335670471191406e-01) (13, -6.97209417819976806641e-01) (14, 1.97400555014610290527e-01) (15, -2.43814542889595031738e-01) (16, 5.05202579498291015625e+00) (17, -3.19344329833984375000e+00) (18, 2.49047565460205078125e+00) (19, 1.56356883049011230469e+00) (20, 2.83138513565063476563e-01) (21, 4.43135881423950195313e+00) (16, 5.14464855194091796875e+00) (17, -2.10252594947814941406e+00) (18, -5.23489177227020263672e-01) (19, -2.99863648414611816406e+00) (20, -1.09600677490234375000e+01) (21, -1.74293071031570434570e-01) (16, 5.16950607299804687500e-01) (17, -3.92239069938659667969e+00) (18, 3.66814279556274414063e+00) (19, -4.03420627117156982422e-01) (20, -1.12654900550842285156e+00) (21, 6.00191811099648475647e-03) (16, -2.28092885017395019531e+00) (17, 4.19120956212282180786e-03) (18, 1.13422167301177978516e+00) (19, 9.63153302669525146484e-01) (20, 6.76903152465820312500e+00) (21, 2.35422706604003906250e+00) 
