FANN_FLO_2.1
num_layers=4
learning_rate=0.700000
connection_rate=1.000000
network_type=0
learning_momentum=0.000000
training_algorithm=2
train_error_function=1
train_stop_function=0
cascade_output_change_fraction=0.010000
quickprop_decay=-0.000100
quickprop_mu=1.750000
rprop_increase_factor=1.200000
rprop_decrease_factor=0.500000
rprop_delta_min=0.000000
rprop_delta_max=50.000000
rprop_delta_zero=0.100000
cascade_output_stagnation_epochs=12
cascade_candidate_change_fraction=0.010000
cascade_candidate_stagnation_epochs=12
cascade_max_out_epochs=150
cascade_min_out_epochs=50
cascade_max_cand_epochs=150
cascade_min_cand_epochs=50
cascade_num_candidate_groups=2
bit_fail_limit=3.49999994039535522461e-01
cascade_candidate_limit=1.00000000000000000000e+03
cascade_weight_multiplier=4.00000005960464477539e-01
cascade_activation_functions_count=10
cascade_activation_functions=3 5 7 8 10 11 14 15 16 17 
cascade_activation_steepnesses_count=4
cascade_activation_steepnesses=2.50000000000000000000e-01 5.00000000000000000000e-01 7.50000000000000000000e-01 1.00000000000000000000e+00 
layer_sizes=6 10 6 5 
scale_included=0
neurons (num_inputs, activation_function, activation_steepness)=(0, 0, 0.00000000000000000000e+00) (0, 0, 0.00000000000000000000e+00) (0, 0, 0.00000000000000000000e+00) (0, 0, 0.00000000000000000000e+00) (0, 0, 0.00000000000000000000e+00) (0, 0, 0.00000000000000000000e+00) (6, 5, 5.00000000000000000000e-01) (6, 5, 5.00000000000000000000e-01) (6, 5, 5.00000000000000000000e-01) (6, 5, 5.00000000000000000000e-01) (6, 5, 5.00000000000000000000e-01) (6, 5, 5.00000000000000000000e-01) (6, 5, 5.00000000000000000000e-01) (6, 5, 5.00000000000000000000e-01) (6, 5, 5.00000000000000000000e-01) (0, 0, 0.00000000000000000000e+00) (10, 5, 5.00000000000000000000e-01) (10, 5, 5.00000000000000000000e-01) (10, 5, 5.00000000000000000000e-01) (10, 5, 5.00000000000000000000e-01) (10, 5, 5.00000000000000000000e-01) (0, 0, 0.00000000000000000000e+00) (6, 5, 5.00000000000000000000e-01) (6, 5, 5.00000000000000000000e-01) (6, 5, 5.00000000000000000000e-01) (6, 5, 5.00000000000000000000e-01) (0, 0, 0.00000000000000000000e+00) 
connections (connected_to_neuron, weight)=(0, 7.82490253448486328125e-01) (1, 9.96767520904541015625e-01) (2, 1.18264508247375488281e+00) (3, 1.17599785327911376953e+00) (4, 1.96686506271362304688e-01) (5, 1.26924037933349609375e+00) (0, 3.46726149320602416992e-01) (1, 2.63657271862030029297e-01) (2, -5.45849323272705078125e-01) (3, 9.88641157746315002441e-02) (4, -6.00817739963531494141e-01) (5, 2.36276650428771972656e+00) (0, 1.71038794517517089844e+00) (1, 1.43480181694030761719e+00) (2, -8.03339302539825439453e-01) (3, -3.03586483001708984375e+00) (4, 4.76083993911743164063e+00) (5, 2.92143225669860839844e+00) (0, 1.64836570620536804199e-01) (1, 1.60358846187591552734e-01) (2, -1.09089232981204986572e-01) (3, 2.61740796267986297607e-02) (4, -9.07858312129974365234e-02) (5, -2.00503182411193847656e+00) (0, 8.41159403324127197266e-01) (1, 1.26584327220916748047e+00) (2, 1.46145963668823242188e+00) (3, 1.52185761928558349609e+00) (4, 1.12454581260681152344e+00) (5, 8.74623119831085205078e-01) (0, 1.21723246574401855469e+00) (1, 1.23243749141693115234e+00) (2, 3.21820497512817382813e+00) (3, -8.36330890655517578125e+00) (4, 1.24632573127746582031e+00) (5, 1.95238530635833740234e+00) (0, -1.49811716079711914063e+01) (1, 4.76370453834533691406e-01) (2, 7.63572335243225097656e-01) (3, 1.49534729003906250000e+03) (4, -6.37148017883300781250e+01) (5, 8.67021679878234863281e-01) (0, 1.33662790060043334961e-01) (1, -7.98401236534118652344e-02) (2, -4.96436089277267456055e-01) (3, 1.96482360363006591797e-01) (4, -1.84583917260169982910e-01) (5, 1.26049721240997314453e+00) (0, 9.16852772235870361328e-01) (1, 6.09113276004791259766e-01) (2, -3.62513154745101928711e-01) (3, 3.90085093677043914795e-02) (4, 6.33027076721191406250e-01) (5, -6.60830688476562500000e+00) (6, 2.93093472719192504883e-01) (7, 1.33848237991333007813e+00) (8, 1.61622822284698486328e-01) (9, 9.45894622802734375000e+00) (10, 6.77953809499740600586e-02) (11, 4.88075345754623413086e-01) (12, 3.38520891964435577393e-02) (13, 3.92566967010498046875e+00) (14, -4.65618038177490234375e+00) (15, 4.71753805875778198242e-01) (6, 3.59284698963165283203e-01) (7, -2.25108032226562500000e+01) (8, -4.26542833447456359863e-02) (9, 9.52015075683593750000e+01) (10, 7.42447078227996826172e-02) (11, 5.23143291473388671875e-01) (12, 3.01577504724264144897e-02) (13, 3.54327201843261718750e-01) (14, 7.98139721155166625977e-02) (15, 3.80154728889465332031e-01) (6, -4.17034983634948730469e-01) (7, -3.11708420515060424805e-01) (8, 5.81899583339691162109e-01) (9, 5.73459148406982421875e+00) (10, 1.32317751646041870117e-01) (11, -9.78970825672149658203e-02) (12, 2.34650954604148864746e-01) (13, 3.93316358327865600586e-01) (14, -1.47659409046173095703e+00) (15, 7.05203175544738769531e-01) (6, 7.79216706752777099609e-01) (7, -1.34791350364685058594e+00) (8, 4.20818418264389038086e-01) (9, 1.13385524749755859375e+01) (10, 5.08979916572570800781e-01) (11, 3.84313106536865234375e-01) (12, 4.48682099580764770508e-01) (13, 9.53351116180419921875e+00) (14, -5.21910095214843750000e+00) (15, 8.03902804851531982422e-01) (6, 4.97440755367279052734e-01) (7, -4.05105924606323242188e+00) (8, 5.09876728057861328125e-01) (9, -3.64158654212951660156e+00) (10, 7.86943852901458740234e-01) (11, -3.41413289308547973633e-01) (12, 6.21964693069458007813e-01) (13, -4.38672924041748046875e+00) (14, 3.19976139068603515625e+00) (15, 5.13656854629516601563e-01) (16, 1.51176095008850097656e+00) (17, 1.72492992877960205078e+00) (18, 1.02230584621429443359e+00) (19, 4.31769549846649169922e-01) (20, 6.44094896316528320313e+00) (21, 6.29916238784790039063e+00) (16, 4.38969694077968597412e-02) (17, -1.89286029338836669922e+00) (18, 3.21008968353271484375e+00) (19, 9.85535308718681335449e-02) (20, 1.59253597259521484375e+00) (21, 5.82062005996704101563e-01) (16, 1.30457067489624023438e+00) (17, 1.99290722608566284180e-01) (18, -1.94676086306571960449e-01) (19, -4.33434581756591796875e+00) (20, -5.97385644912719726563e-01) (21, 2.62422490119934082031e+00) (16, 2.61625933647155761719e+00) (17, 1.96858584880828857422e+00) (18, -7.80192434787750244141e-01) (19, -1.50646948814392089844e+00) (20, 1.23083150386810302734e+00) (21, 2.02769041061401367188e+00) 
